{
    "weights": [
        -0.027030236327757518,
        0.04767272380253256,
        -0.021600958347386918,
        0.10034732940137774,
        -0.07002501491145782,
        0.13836352889145398,
        -0.018166628539329953,
        -0.20837955817772513,
        0.010732608752318863,
        0.007473275511719319,
        0.05727885718191193,
        -0.025657654561896035,
        -0.36058252126832535,
        -0.17183260067230843,
        0.4545348920641863
    ],
    "bias": 0.0007028584729389754,
    "mean": [
        -4.143106330962683e-17,
        9.667248105579594e-17,
        1.3810354436542277e-17,
        6.905177218271139e-17,
        9.667248105579594e-17,
        -5.178882913703354e-18,
        0.0,
        3.021015032993623e-18,
        -1.2084060131974493e-17,
        6.9051772182711385e-18,
        6.9051772182711385e-18,
        -1.2084060131974493e-17,
        1.1048283549233822e-16,
        1.1048283549233822e-16,
        -5.524141774616911e-17
    ],
    "scale": [
        1.0,
        1.0,
        1.0,
        1.0,
        1.0,
        1.0,
        1.0,
        1.0,
        1.0,
        1.0,
        1.0,
        1.0,
        1.0,
        1.0,
        1.0
    ],
    "weights_close": [
        -0.027030236327757518,
        0.04767272380253256,
        -0.021600958347386918,
        0.10034732940137774,
        -0.07002501491145782,
        0.13836352889145398,
        -0.018166628539329953,
        -0.20837955817772513,
        0.010732608752318863,
        0.007473275511719319,
        0.05727885718191193,
        -0.025657654561896035,
        -0.36058252126832535,
        -0.17183260067230843,
        0.4545348920641863
    ],
    "bias_close": 0.0007028584729389754
}